digraph Tree {
node [shape=box, style="filled, rounded", color="black", fontname="helvetica"] ;
edge [fontname="helvetica"] ;
0 [label="sepal length (cm) <= 5.95\ngini = 0.65\nsamples = 96\nvalue = [39, 47, 64]\nclass = virginica", fillcolor="#eadefb"] ;
1 [label="sepal width (cm) <= 3.05\ngini = 0.55\nsamples = 48\nvalue = [39, 26, 5]\nclass = setosa", fillcolor="#f7dac4"] ;
0 -> 1 [labeldistance=2.5, labelangle=45, headlabel="True"] ;
2 [label="petal width (cm) <= 1.7\ngini = 0.41\nsamples = 23\nvalue = [4, 26, 5]\nclass = versicolor", fillcolor="#74eda7"] ;
1 -> 2 ;
3 [label="petal length (cm) <= 2.3\ngini = 0.23\nsamples = 20\nvalue = [4, 26, 0]\nclass = versicolor", fillcolor="#57e994"] ;
2 -> 3 ;
4 [label="gini = 0.0\nsamples = 3\nvalue = [4, 0, 0]\nclass = setosa", fillcolor="#e58139"] ;
3 -> 4 ;
5 [label="gini = 0.0\nsamples = 17\nvalue = [0, 26, 0]\nclass = versicolor", fillcolor="#39e581"] ;
3 -> 5 ;
6 [label="gini = 0.0\nsamples = 3\nvalue = [0, 0, 5]\nclass = virginica", fillcolor="#8139e5"] ;
2 -> 6 ;
7 [label="gini = 0.0\nsamples = 25\nvalue = [35, 0, 0]\nclass = setosa", fillcolor="#e58139"] ;
1 -> 7 ;
8 [label="petal width (cm) <= 1.75\ngini = 0.39\nsamples = 48\nvalue = [0, 21, 59]\nclass = virginica", fillcolor="#ae7fee"] ;
0 -> 8 [labeldistance=2.5, labelangle=-45, headlabel="False"] ;
9 [label="petal length (cm) <= 5.35\ngini = 0.31\nsamples = 19\nvalue = [0, 21, 5]\nclass = versicolor", fillcolor="#68eb9f"] ;
8 -> 9 ;
10 [label="sepal width (cm) <= 2.25\ngini = 0.09\nsamples = 18\nvalue = [0, 21, 1]\nclass = versicolor", fillcolor="#42e687"] ;
9 -> 10 ;
11 [label="petal length (cm) <= 4.75\ngini = 0.5\nsamples = 2\nvalue = [0, 1, 1]\nclass = versicolor", fillcolor="#ffffff"] ;
10 -> 11 ;
12 [label="gini = 0.0\nsamples = 1\nvalue = [0, 1, 0]\nclass = versicolor", fillcolor="#39e581"] ;
11 -> 12 ;
13 [label="gini = 0.0\nsamples = 1\nvalue = [0, 0, 1]\nclass = virginica", fillcolor="#8139e5"] ;
11 -> 13 ;
14 [label="gini = 0.0\nsamples = 16\nvalue = [0, 20, 0]\nclass = versicolor", fillcolor="#39e581"] ;
10 -> 14 ;
15 [label="gini = 0.0\nsamples = 1\nvalue = [0, 0, 4]\nclass = virginica", fillcolor="#8139e5"] ;
9 -> 15 ;
16 [label="gini = 0.0\nsamples = 29\nvalue = [0, 0, 54]\nclass = virginica", fillcolor="#8139e5"] ;
8 -> 16 ;
}