digraph Tree {
node [shape=box, style="filled, rounded", color="black", fontname="helvetica"] ;
edge [fontname="helvetica"] ;
0 [label="sepal length (cm) <= 5.45\ngini = 0.67\nsamples = 97\nvalue = [50, 47, 53]\nclass = virginica", fillcolor="#fbf9fe"] ;
1 [label="sepal width (cm) <= 2.75\ngini = 0.15\nsamples = 31\nvalue = [45.0, 3.0, 1.0]\nclass = setosa", fillcolor="#e78c4a"] ;
0 -> 1 [labeldistance=2.5, labelangle=45, headlabel="True"] ;
2 [label="petal length (cm) <= 4.0\ngini = 0.38\nsamples = 3\nvalue = [0, 3, 1]\nclass = versicolor", fillcolor="#7beeab"] ;
1 -> 2 ;
3 [label="gini = 0.0\nsamples = 2\nvalue = [0, 3, 0]\nclass = versicolor", fillcolor="#39e581"] ;
2 -> 3 ;
4 [label="gini = 0.0\nsamples = 1\nvalue = [0, 0, 1]\nclass = virginica", fillcolor="#8139e5"] ;
2 -> 4 ;
5 [label="gini = 0.0\nsamples = 28\nvalue = [45, 0, 0]\nclass = setosa", fillcolor="#e58139"] ;
1 -> 5 ;
6 [label="petal width (cm) <= 1.7\ngini = 0.54\nsamples = 66\nvalue = [5, 44, 52]\nclass = virginica", fillcolor="#ede3fb"] ;
0 -> 6 [labeldistance=2.5, labelangle=-45, headlabel="False"] ;
7 [label="sepal width (cm) <= 3.6\ngini = 0.38\nsamples = 34\nvalue = [5, 43, 8]\nclass = versicolor", fillcolor="#6feca3"] ;
6 -> 7 ;
8 [label="petal length (cm) <= 4.95\ngini = 0.26\nsamples = 31\nvalue = [0, 43, 8]\nclass = versicolor", fillcolor="#5eea98"] ;
7 -> 8 ;
9 [label="gini = 0.0\nsamples = 27\nvalue = [0, 43, 0]\nclass = versicolor", fillcolor="#39e581"] ;
8 -> 9 ;
10 [label="gini = 0.0\nsamples = 4\nvalue = [0, 0, 8]\nclass = virginica", fillcolor="#8139e5"] ;
8 -> 10 ;
11 [label="gini = 0.0\nsamples = 3\nvalue = [5, 0, 0]\nclass = setosa", fillcolor="#e58139"] ;
7 -> 11 ;
12 [label="petal length (cm) <= 4.85\ngini = 0.04\nsamples = 32\nvalue = [0, 1, 44]\nclass = virginica", fillcolor="#843de6"] ;
6 -> 12 ;
13 [label="sepal length (cm) <= 5.95\ngini = 0.38\nsamples = 3\nvalue = [0, 1, 3]\nclass = virginica", fillcolor="#ab7bee"] ;
12 -> 13 ;
14 [label="gini = 0.0\nsamples = 1\nvalue = [0, 1, 0]\nclass = versicolor", fillcolor="#39e581"] ;
13 -> 14 ;
15 [label="gini = 0.0\nsamples = 2\nvalue = [0, 0, 3]\nclass = virginica", fillcolor="#8139e5"] ;
13 -> 15 ;
16 [label="gini = 0.0\nsamples = 29\nvalue = [0, 0, 41]\nclass = virginica", fillcolor="#8139e5"] ;
12 -> 16 ;
}